digraph Tree {
node [shape=box, style="filled, rounded", color="black", fontname=helvetica] ;
edge [fontname=helvetica] ;
0 [label="petal length (cm) <= 2.35\ngini = 0.66\nsamples = 93\nvalue = [43, 62, 45]\nclass = versicolor", fillcolor="#dffbeb"] ;
1 [label="gini = 0.0\nsamples = 26\nvalue = [43, 0, 0]\nclass = setosa", fillcolor="#e58139"] ;
0 -> 1 [labeldistance=2.5, labelangle=45, headlabel="True"] ;
2 [label="petal width (cm) <= 1.75\ngini = 0.49\nsamples = 67\nvalue = [0, 62, 45]\nclass = versicolor", fillcolor="#c9f8dc"] ;
0 -> 2 [labeldistance=2.5, labelangle=-45, headlabel="False"] ;
3 [label="petal length (cm) <= 5.35\ngini = 0.14\nsamples = 39\nvalue = [0, 60, 5]\nclass = versicolor", fillcolor="#49e78c"] ;
2 -> 3 ;
4 [label="sepal length (cm) <= 4.95\ngini = 0.09\nsamples = 37\nvalue = [0, 60, 3]\nclass = versicolor", fillcolor="#43e687"] ;
3 -> 4 ;
5 [label="petal width (cm) <= 1.35\ngini = 0.5\nsamples = 2\nvalue = [0, 1, 1]\nclass = versicolor", fillcolor="#ffffff"] ;
4 -> 5 ;
6 [label="gini = 0.0\nsamples = 1\nvalue = [0, 1, 0]\nclass = versicolor", fillcolor="#39e581"] ;
5 -> 6 ;
7 [label="gini = 0.0\nsamples = 1\nvalue = [0, 0, 1]\nclass = virginica", fillcolor="#8139e5"] ;
5 -> 7 ;
8 [label="petal width (cm) <= 1.45\ngini = 0.06\nsamples = 35\nvalue = [0, 59, 2]\nclass = versicolor", fillcolor="#40e685"] ;
4 -> 8 ;
9 [label="gini = 0.0\nsamples = 24\nvalue = [0, 44, 0]\nclass = versicolor", fillcolor="#39e581"] ;
8 -> 9 ;
10 [label="petal length (cm) <= 4.95\ngini = 0.21\nsamples = 11\nvalue = [0, 15, 2]\nclass = versicolor", fillcolor="#53e892"] ;
8 -> 10 ;
11 [label="gini = 0.0\nsamples = 7\nvalue = [0, 10, 0]\nclass = versicolor", fillcolor="#39e581"] ;
10 -> 11 ;
12 [label="sepal length (cm) <= 6.5\ngini = 0.41\nsamples = 4\nvalue = [0, 5, 2]\nclass = versicolor", fillcolor="#88efb3"] ;
10 -> 12 ;
13 [label="petal width (cm) <= 1.55\ngini = 0.48\nsamples = 3\nvalue = [0, 3, 2]\nclass = versicolor", fillcolor="#bdf6d5"] ;
12 -> 13 ;
14 [label="gini = 0.0\nsamples = 2\nvalue = [0, 0, 2]\nclass = virginica", fillcolor="#8139e5"] ;
13 -> 14 ;
15 [label="gini = 0.0\nsamples = 1\nvalue = [0, 3, 0]\nclass = versicolor", fillcolor="#39e581"] ;
13 -> 15 ;
16 [label="gini = 0.0\nsamples = 1\nvalue = [0, 2, 0]\nclass = versicolor", fillcolor="#39e581"] ;
12 -> 16 ;
17 [label="gini = 0.0\nsamples = 2\nvalue = [0, 0, 2]\nclass = virginica", fillcolor="#8139e5"] ;
3 -> 17 ;
18 [label="petal length (cm) <= 4.85\ngini = 0.09\nsamples = 28\nvalue = [0, 2, 40]\nclass = virginica", fillcolor="#8743e6"] ;
2 -> 18 ;
19 [label="sepal width (cm) <= 3.1\ngini = 0.5\nsamples = 2\nvalue = [0, 2, 2]\nclass = versicolor", fillcolor="#ffffff"] ;
18 -> 19 ;
20 [label="gini = 0.0\nsamples = 1\nvalue = [0, 0, 2]\nclass = virginica", fillcolor="#8139e5"] ;
19 -> 20 ;
21 [label="gini = 0.0\nsamples = 1\nvalue = [0, 2, 0]\nclass = versicolor", fillcolor="#39e581"] ;
19 -> 21 ;
22 [label="gini = 0.0\nsamples = 26\nvalue = [0, 0, 38]\nclass = virginica", fillcolor="#8139e5"] ;
18 -> 22 ;
}